<?xml version="1.0"?>
<MethodSetup Method="MLP::MLP">
  <GeneralInfo>
    <Info name="TMVA Release" value="4.2.0 [262656]"/>
    <Info name="ROOT Release" value="6.02/05 [393733]"/>
    <Info name="Creator" value="jsalfeld"/>
    <Info name="Date" value="Wed Jun 10 22:57:16 2015"/>
    <Info name="Host" value="Linux vocms0315.cern.ch 2.6.32-504.12.2.el6.x86_64 #1 SMP Thu Mar 12 07:33:00 CET 2015 x86_64 x86_64 x86_64 GNU/Linux"/>
    <Info name="Dir" value="/afs/cern.ch/work/j/jsalfeld/MIT/vdmAnalysis/CMSSW_7_4_2/src/TMVA-v4.2.0/test"/>
    <Info name="Training events" value="4485"/>
    <Info name="TrainingTime" value="2.60135729e+03"/>
    <Info name="AnalysisType" value="Regression"/>
  </GeneralInfo>
  <Options>
    <Option name="NCycles" modified="Yes">20000</Option>
    <Option name="HiddenLayers" modified="Yes">N+20</Option>
    <Option name="NeuronType" modified="Yes">tanh</Option>
    <Option name="RandomSeed" modified="No">1</Option>
    <Option name="EstimatorType" modified="No">MSE</Option>
    <Option name="NeuronInputType" modified="No">sum</Option>
    <Option name="V" modified="Yes">False</Option>
    <Option name="VerbosityLevel" modified="No">Default</Option>
    <Option name="VarTransform" modified="Yes">Norm</Option>
    <Option name="H" modified="Yes">False</Option>
    <Option name="CreateMVAPdfs" modified="No">False</Option>
    <Option name="IgnoreNegWeightsInTraining" modified="No">False</Option>
    <Option name="TrainingMethod" modified="Yes">BFGS</Option>
    <Option name="LearningRate" modified="No">2.000000e-02</Option>
    <Option name="DecayRate" modified="No">1.000000e-02</Option>
    <Option name="TestRate" modified="Yes">6</Option>
    <Option name="EpochMonitoring" modified="No">False</Option>
    <Option name="Sampling" modified="Yes">3.000000e-01</Option>
    <Option name="SamplingEpoch" modified="Yes">8.000000e-01</Option>
    <Option name="SamplingImportance" modified="No">1.000000e+00</Option>
    <Option name="SamplingTraining" modified="No">True</Option>
    <Option name="SamplingTesting" modified="No">False</Option>
    <Option name="ResetStep" modified="No">50</Option>
    <Option name="Tau" modified="No">3.000000e+00</Option>
    <Option name="BPMode" modified="No">sequential</Option>
    <Option name="BatchSize" modified="No">-1</Option>
    <Option name="ConvergenceImprove" modified="Yes">1.000000e-06</Option>
    <Option name="ConvergenceTests" modified="Yes">15</Option>
    <Option name="UseRegulator" modified="Yes">False</Option>
    <Option name="UpdateLimit" modified="No">10000</Option>
    <Option name="CalculateErrors" modified="No">False</Option>
    <Option name="WeightRange" modified="No">1.000000e+00</Option>
  </Options>
  <Variables NVar="14">
    <Variable VarIndex="0" Expression="yWidth1N_fit" Label="yWidth1N_fit" Title="yWidth1N_fit" Unit="units" Internal="yWidth1N_fit" Type="D" Min="1.50000000e+00" Max="2.00000000e+00"/>
    <Variable VarIndex="1" Expression="xWidth1N_fit" Label="xWidth1N_fit" Title="xWidth1N_fit" Unit="units" Internal="xWidth1N_fit" Type="D" Min="1.50000000e+00" Max="2.00000000e+00"/>
    <Variable VarIndex="2" Expression="corr1N_fit" Label="corr1N_fit" Title="corr1N_fit" Unit="units" Internal="corr1N_fit" Type="D" Min="-4.00000006e-01" Max="4.00000006e-01"/>
    <Variable VarIndex="3" Expression="yWidth1W_fit" Label="yWidth1W_fit" Title="yWidth1W_fit" Unit="units" Internal="yWidth1W_fit" Type="D" Min="2.00000000e+00" Max="2.59999990e+00"/>
    <Variable VarIndex="4" Expression="xWidth1W_fit" Label="xWidth1W_fit" Title="xWidth1W_fit" Unit="units" Internal="xWidth1W_fit" Type="D" Min="2.00000000e+00" Max="2.59999990e+00"/>
    <Variable VarIndex="5" Expression="corr1W_fit" Label="corr1W_fit" Title="corr1W_fit" Unit="units" Internal="corr1W_fit" Type="D" Min="-4.00000006e-01" Max="4.00000006e-01"/>
    <Variable VarIndex="6" Expression="weight1_fit" Label="weight1_fit" Title="weight1_fit" Unit="units" Internal="weight1_fit" Type="D" Min="1.19126931e-13" Max="1.00000000e+00"/>
    <Variable VarIndex="7" Expression="yWidth2N_fit" Label="yWidth2N_fit" Title="yWidth2N_fit" Unit="units" Internal="yWidth2N_fit" Type="D" Min="1.50000000e+00" Max="2.00000000e+00"/>
    <Variable VarIndex="8" Expression="xWidth2N_fit" Label="xWidth2N_fit" Title="xWidth2N_fit" Unit="units" Internal="xWidth2N_fit" Type="D" Min="1.50000000e+00" Max="2.00000000e+00"/>
    <Variable VarIndex="9" Expression="corr2N_fit" Label="corr2N_fit" Title="corr2N_fit" Unit="units" Internal="corr2N_fit" Type="D" Min="-4.00000006e-01" Max="4.00000006e-01"/>
    <Variable VarIndex="10" Expression="yWidth2W_fit" Label="yWidth2W_fit" Title="yWidth2W_fit" Unit="units" Internal="yWidth2W_fit" Type="D" Min="2.00000000e+00" Max="2.59999990e+00"/>
    <Variable VarIndex="11" Expression="xWidth2W_fit" Label="xWidth2W_fit" Title="xWidth2W_fit" Unit="units" Internal="xWidth2W_fit" Type="D" Min="2.00000000e+00" Max="2.59999990e+00"/>
    <Variable VarIndex="12" Expression="corr2W_fit" Label="corr2W_fit" Title="corr2W_fit" Unit="units" Internal="corr2W_fit" Type="D" Min="-4.00000006e-01" Max="4.00000006e-01"/>
    <Variable VarIndex="13" Expression="weight2_fit" Label="weight2_fit" Title="weight2_fit" Unit="units" Internal="weight2_fit" Type="D" Min="5.99231775e-12" Max="1.00000000e+00"/>
  </Variables>
  <Spectators NSpec="0"/>
  <Classes NClass="1">
    <Class Name="Regression" Index="0"/>
  </Classes>
  <Targets NTrgt="1">
    <Target TargetIndex="0" Expression="overlapTrue" Label="overlapTrue" Title="overlapTrue" Unit="" Internal="overlapTrue" Type="F" Min="1.28190406e-02" Max="2.83660796e-02"/>
  </Targets>
  <Transformations NTransformations="1">
    <Transform Name="Normalize">
      <Selection>
        <Input NInputs="15">
          <Input Type="Variable" Label="yWidth1N_fit" Expression="yWidth1N_fit"/>
          <Input Type="Variable" Label="xWidth1N_fit" Expression="xWidth1N_fit"/>
          <Input Type="Variable" Label="corr1N_fit" Expression="corr1N_fit"/>
          <Input Type="Variable" Label="yWidth1W_fit" Expression="yWidth1W_fit"/>
          <Input Type="Variable" Label="xWidth1W_fit" Expression="xWidth1W_fit"/>
          <Input Type="Variable" Label="corr1W_fit" Expression="corr1W_fit"/>
          <Input Type="Variable" Label="weight1_fit" Expression="weight1_fit"/>
          <Input Type="Variable" Label="yWidth2N_fit" Expression="yWidth2N_fit"/>
          <Input Type="Variable" Label="xWidth2N_fit" Expression="xWidth2N_fit"/>
          <Input Type="Variable" Label="corr2N_fit" Expression="corr2N_fit"/>
          <Input Type="Variable" Label="yWidth2W_fit" Expression="yWidth2W_fit"/>
          <Input Type="Variable" Label="xWidth2W_fit" Expression="xWidth2W_fit"/>
          <Input Type="Variable" Label="corr2W_fit" Expression="corr2W_fit"/>
          <Input Type="Variable" Label="weight2_fit" Expression="weight2_fit"/>
          <Input Type="Target" Label="overlapTrue" Expression="overlapTrue"/>
        </Input>
        <Output NOutputs="15">
          <Output Type="Variable" Label="yWidth1N_fit" Expression="yWidth1N_fit"/>
          <Output Type="Variable" Label="xWidth1N_fit" Expression="xWidth1N_fit"/>
          <Output Type="Variable" Label="corr1N_fit" Expression="corr1N_fit"/>
          <Output Type="Variable" Label="yWidth1W_fit" Expression="yWidth1W_fit"/>
          <Output Type="Variable" Label="xWidth1W_fit" Expression="xWidth1W_fit"/>
          <Output Type="Variable" Label="corr1W_fit" Expression="corr1W_fit"/>
          <Output Type="Variable" Label="weight1_fit" Expression="weight1_fit"/>
          <Output Type="Variable" Label="yWidth2N_fit" Expression="yWidth2N_fit"/>
          <Output Type="Variable" Label="xWidth2N_fit" Expression="xWidth2N_fit"/>
          <Output Type="Variable" Label="corr2N_fit" Expression="corr2N_fit"/>
          <Output Type="Variable" Label="yWidth2W_fit" Expression="yWidth2W_fit"/>
          <Output Type="Variable" Label="xWidth2W_fit" Expression="xWidth2W_fit"/>
          <Output Type="Variable" Label="corr2W_fit" Expression="corr2W_fit"/>
          <Output Type="Variable" Label="weight2_fit" Expression="weight2_fit"/>
          <Output Type="Target" Label="overlapTrue" Expression="overlapTrue"/>
        </Output>
      </Selection>
      <Class ClassIndex="0">
        <Ranges>
          <Range Index="0" Min="1.5000000000000000e+00" Max="2.0000000000000000e+00"/>
          <Range Index="1" Min="1.5000000000000000e+00" Max="2.0000000000000000e+00"/>
          <Range Index="2" Min="-4.0000000596046448e-01" Max="4.0000000596046448e-01"/>
          <Range Index="3" Min="2.0000000000000000e+00" Max="2.5999999046325684e+00"/>
          <Range Index="4" Min="2.0000000000000000e+00" Max="2.5999999046325684e+00"/>
          <Range Index="5" Min="-4.0000000596046448e-01" Max="4.0000000596046448e-01"/>
          <Range Index="6" Min="1.1912693054227930e-13" Max="1.0000000000000000e+00"/>
          <Range Index="7" Min="1.5000000000000000e+00" Max="2.0000000000000000e+00"/>
          <Range Index="8" Min="1.5000000000000000e+00" Max="2.0000000000000000e+00"/>
          <Range Index="9" Min="-4.0000000596046448e-01" Max="4.0000000596046448e-01"/>
          <Range Index="10" Min="2.0000000000000000e+00" Max="2.5999999046325684e+00"/>
          <Range Index="11" Min="2.0000000000000000e+00" Max="2.5999999046325684e+00"/>
          <Range Index="12" Min="-4.0000000596046448e-01" Max="4.0000000596046448e-01"/>
          <Range Index="13" Min="5.9923177531118199e-12" Max="1.0000000000000000e+00"/>
          <Range Index="14" Min="1.2819040566682816e-02" Max="2.8366079553961754e-02"/>
        </Ranges>
      </Class>
    </Transform>
  </Transformations>
  <MVAPdfs/>
  <Weights>
    <Layout NLayers="3">
      <Layer Index="0" NNeurons="15">
        <Neuron NSynapses="34">
          -6.0237776337202543e-02 1.8190753730652816e+00 -5.0486861679276018e-02 1.0125058010943402e+00 -6.2085451003927250e-01 -8.4675277009271133e-02 4.7111203530839568e-01 1.7124548950198437e+00 -1.6854703452376130e+00 -1.4848854347518727e+00 -6.3778158904379892e-02 1.1844313831954836e-01 -8.4760321215907042e-01 -7.2912234265963716e-02 1.2031473149288635e-01 -1.2587110027989973e-01 -5.4851281551483788e-01 -5.9819030700724057e-02 -2.8053218443049904e-01 -7.9999775166969200e-01 -1.2336868256822552e-01 -1.2333199238881887e+00 7.3143775543605294e-02 2.8559082432460070e-01 -1.5453357415425646e+00 1.0268508514931265e-01 1.0979927849823399e+00 -4.7129436045734068e-03 -9.6884989551560852e-01 3.6478828735324248e-01 1.2084686076775801e+00 1.5890247920135163e+00 -2.4024727059210861e-02 -1.0376030186621174e-01 
        </Neuron>
        <Neuron NSynapses="34">
          -6.0926578560192748e-02 1.1172556483130480e+00 -6.4529039662107740e-02 5.3812668454925949e-01 4.8222912533835555e-01 -7.5711047590742431e-02 -3.6699983860205077e-01 3.6368245034245184e-01 1.4484836391468767e+00 1.5756768459615991e+00 -4.7655549376501918e-02 -7.6321672406015240e-01 5.8741217437256488e-01 -7.3758945445449309e-02 1.0547565671240153e-01 -1.3044211819834256e-01 1.4126137183467657e+00 -5.3172372621737810e-02 -1.3271838511337917e+00 -3.5005094385751595e-01 -6.8350028449934735e-02 -1.0358004228651996e+00 7.3577475117376251e-02 -1.7092797153981658e+00 5.4729243002044192e-01 1.0861890518657602e-01 -1.6552719697859792e+00 -5.3323342846252682e-02 1.4836270383483846e-01 3.4855507450746454e-01 1.2876558584638103e+00 -1.4414983245236324e-01 -2.6064529639916685e-02 -1.1179729356354924e-01 
        </Neuron>
        <Neuron NSynapses="34">
          2.0452206008921517e-02 -3.6279191819231049e-01 1.1005794870320185e-01 -2.5195580960078572e+00 1.4671148746859139e-01 3.3776830176290011e-02 1.8674178427866905e-01 -1.8489920274631616e-01 -1.8859914141969389e+00 -1.1190254106829753e+00 5.7772780938328738e-01 1.6909701404558259e+00 8.5907968008115387e-01 2.5758248446519888e-02 -3.8983842819302006e-02 -3.2075717043829283e-01 -1.8547146053775207e-01 -6.0229003789853741e-01 1.0177384190861190e+00 -1.7715473361639307e+00 -1.4835137816241589e-01 -1.8623336742118299e-01 -3.9568971091348770e-02 -3.1793154410148311e-01 2.5524614896908155e+00 -4.9080546527472298e-02 -4.8214059604854553e-01 1.2117939868206735e+00 -5.4899004504957272e-01 -4.2384540605062054e-01 -6.3538511289337252e-01 -2.9364483523642620e-01 2.1235804592543282e-02 -1.4361786553995097e+00 
        </Neuron>
        <Neuron NSynapses="34">
          2.3003545075088869e-02 1.8278404777175802e-01 6.1241545575160004e-02 1.4667326278367707e-01 -4.0106050605881782e-01 6.3059214312192469e-02 5.3637814150606332e-02 5.6911616881855687e-01 -1.4884044152098146e+00 7.2138608070333432e-01 -1.8214425571847600e-02 2.0205712746001625e-01 -1.3834921670517411e+00 4.7285518658297387e-02 -1.7931674643050344e-01 2.0704811312053081e-01 1.7906313976126176e+00 -2.4816094323840795e-02 -7.6338384088248978e-01 -3.7917046114304076e-01 4.3837955550224833e-01 9.1521137505854433e-01 -2.5453036946338142e-02 6.0597812862066158e-01 -4.4130623859418805e-01 -4.7717386777764798e-02 -2.4013862562405892e+00 -8.8434414756242002e-02 -3.6952333059298909e-01 -2.1224049028591336e+00 1.0878618636940997e-01 -1.1056995486472740e+00 -2.1551866255745851e-02 -7.8729689214350793e-02 
        </Neuron>
        <Neuron NSynapses="34">
          2.3521066411940433e-02 -7.4848806352474673e-01 7.3776334068669014e-02 5.2246768302550883e-01 1.8935383600878897e+00 6.1728835103338105e-02 -9.1277298914072569e-01 2.9611949975328444e-01 -1.4225488067249243e+00 1.8397022769300897e+00 8.5537545406175666e-03 -2.0955879969576130e-01 -3.9672373301300812e-01 4.1479257601103665e-02 -1.7532858526522957e-01 1.3071627009718518e+00 8.5283487554484561e-01 -3.6294620809127938e-02 -8.5291455777917513e-01 -2.8730055437707713e-01 2.6909305316752241e-01 4.5691492057760119e-01 -2.5975443939484252e-02 -1.1717920965756501e+00 1.3574489034315083e+00 -4.5864221805636846e-02 -7.3161876264693296e-02 4.1840553064770675e-01 4.7910645629896714e-01 -7.9693871682916662e-01 3.2559556362134667e-01 1.1148527247602911e+00 -2.6433413477886965e-02 1.5614771648889336e-01 
        </Neuron>
        <Neuron NSynapses="34">
          1.0368419277334394e-02 4.1708223732590294e-01 6.7604746547991158e-03 5.3603328409354534e-01 2.0073933685566208e+00 -3.8881910365010303e-01 9.6862585735215223e-01 -4.3439813952665673e-01 5.4738716217552330e-01 -1.6742337132736653e+00 2.8510100628783553e-02 1.7818150985487797e+00 1.7377308723949221e+00 -8.9879447636105989e-02 -1.8433337139547948e-01 -3.5997174020670847e-01 5.6604515144234568e-01 -5.6930155846524423e-02 -1.2311756583174980e+00 5.1674204106016523e-02 -1.8870493221383178e+00 5.9248010386998728e-01 -1.1820685515981144e-02 1.2456203000004229e+00 8.9125635012678839e-01 1.4613840169302797e-02 -1.7223229186625839e+00 1.6922458085402825e+00 1.9499637199961373e-01 -9.2162607800619345e-01 -4.6418875548770333e-01 -7.3106779095776442e-01 -4.4143689028033799e-03 -1.2525602672661590e-01 
        </Neuron>
        <Neuron NSynapses="34">
          -5.9762161906718188e-02 1.8994246313457170e+00 -3.9155313531829850e-01 -3.2357575538615507e-01 2.3404074901274865e+00 -6.1830003020254753e-01 7.4647346795630931e-01 -4.8750042513966291e-01 -1.7118030381321379e+00 -1.6822535678474504e+00 5.9272047848918519e-01 1.1725468925434233e+00 1.6485904202868920e+00 -5.2455761486860031e-01 1.1787992383164119e+00 -1.8310533116671677e+00 -1.3666118808917622e+00 6.2110167728909060e-01 -4.0644200261969754e-01 9.0496858862111751e-01 8.5797025063094412e-01 -3.4501051080767442e+00 1.0300085378294578e-01 5.8409428305546107e-01 -1.4376065136012066e+00 -3.7272747436526887e-01 1.4025050522689051e+00 -5.6907271484616095e-01 1.4452998722628150e+00 -1.3559736753542559e+00 7.4301226629457540e-01 -7.3997039245076046e-01 -3.6384638181552292e-01 1.1216975398495583e+00 
        </Neuron>
        <Neuron NSynapses="34">
          -3.2881642154370838e-02 -2.0781778550918900e-01 -8.9275839318560993e-02 5.7796299691398079e-01 -1.6428448404102016e+00 -1.5562530233173321e-02 -1.1625371682674965e+00 -6.3862062208714279e-02 -1.0990985854051840e+00 -7.1313085892963679e-01 -4.3341560568991307e-02 -8.2284091403187498e-01 -1.1042159782061872e-01 -2.6194242734949313e-02 -4.7479444752996480e-02 2.1650894274139647e+00 1.3375477420282362e+00 -7.8317559472945372e-02 -1.3186233350837853e+00 -6.2733199451327626e-01 4.8469117683044106e-02 1.2355914596658349e-01 7.9949626937302981e-02 8.0998593775184835e-01 1.1123715446063842e+00 8.5470889014783058e-02 -1.4856515687433713e-01 2.7051732855985949e-01 -1.0277940951085185e+00 5.7886817329516738e-01 3.0986724725721693e-01 -7.9639029625870572e-01 -4.5881127967929362e-02 8.1357079727250772e-02 
        </Neuron>
        <Neuron NSynapses="34">
          -3.0157278918626088e-02 1.6979445952242171e+00 -8.1791630362334625e-02 6.3876865600119781e-01 4.7849523292898177e-01 -2.9652623922832985e-03 3.3092508114585628e-01 -8.8807387438680052e-01 -2.2267625733787552e-01 -1.6256497062149824e-01 1.4675396799014752e-02 -1.6924281043602787e-01 -2.6030137784467202e+00 -1.7453439875895167e-02 -6.1192379973272551e-02 2.0488465721146158e+00 -1.1630315125153625e+00 -5.8988196194513481e-02 -1.3510064700026563e+00 -5.1565237654618339e-02 -1.9080186465397267e-01 -4.7521821237027106e-01 7.6770040931715564e-02 -1.6053449805276430e+00 1.1694995087413673e-01 1.0090016766380140e-01 -2.3933583470875699e+00 -1.6100224759339424e-01 -9.8193667663468231e-01 5.7320133665967876e-01 5.8134596264374372e-01 -4.5829731826921105e-01 -4.1652479136732777e-02 -1.1784702758944630e-02 
        </Neuron>
        <Neuron NSynapses="34">
          3.5522610287467692e-02 -1.0832580341646967e+00 1.2289953858239377e-01 -3.1581487099266901e+00 1.5579471019039941e+00 -9.2195638450578418e-02 -1.2036940281084474e+00 1.6547601795280928e+00 5.2449222842750642e-01 2.3535973218602538e-01 -1.6272885811899115e-02 -9.0658246086983807e-01 8.3487994603245630e-01 -1.5805787704461871e-03 -1.3824109029737322e-01 -4.4063471558213135e-01 -4.9395383710301449e-01 -6.8636177275909094e-01 -4.1459059200947124e-01 1.8211823052376322e-01 2.3613503904277722e-01 2.0255715037267355e-01 -5.6419189658235974e-02 1.4448952919916827e+00 -1.1125372882996341e+00 -5.1171512085444522e-02 -1.0790399115862184e+00 -7.6360171960615353e-01 -1.4570415785638099e-01 4.0135959850269282e-01 5.2228679043138149e-01 2.4701649000482245e-01 1.8863887637120564e-02 -5.6144590221795125e-02 
        </Neuron>
        <Neuron NSynapses="34">
          -2.0638063487821524e-02 1.0424709987413269e-01 1.3720937776119330e-01 2.6357841494509338e-01 4.4930014300503590e-01 -4.6866770230118614e-02 -1.2115460480148359e+00 8.8333903409671199e-01 -1.4138482476484546e-01 -5.0978792985888355e-01 -6.0826116983897213e-02 1.5672312650643370e+00 6.3229102008282967e-01 -3.8749460906338781e-02 9.0583824939177229e-02 -1.1075138322509204e+00 -1.8380476490901012e+00 -3.7986580229662621e-02 -7.9750838294695026e-01 -4.3768552533652788e-01 1.4207374151821717e-01 7.7067689889350066e-01 -3.0678419882816204e-02 -1.4120259940673601e+00 1.2146364078460503e+00 -4.2383750938123070e-02 -1.6434960484466958e+00 4.5657532207580043e-01 -1.8768580232860050e+00 -1.8959407408329190e+00 1.9307467286241256e+00 -2.3583302159274941e+00 -3.6027822999198467e-05 -2.1371371596921293e-01 
        </Neuron>
        <Neuron NSynapses="34">
          -2.4075625076309233e-02 -2.9636847005263467e-01 1.1443874036272457e-01 6.7600438135222773e-01 1.5202782526575238e+00 -3.9166160228528868e-02 7.5293449626707853e-01 9.1520956730529113e-01 -2.0523533142695736e+00 8.2008778028032059e-01 -6.6745985154404205e-02 -4.8485056929392562e-02 1.2973812501903206e+00 -3.5009163497198861e-02 8.0015566623571760e-02 -9.2337060124072223e-01 3.2409834865527065e-01 -4.1397897260718658e-02 -1.4907226194068388e+00 -3.2668215921495991e-01 3.1386045298276555e-01 4.1228429069360018e-01 -2.6192855949875783e-02 2.2581263034359846e-02 6.9189922982577046e-01 -3.5209099122058753e-02 1.4805002481517049e+00 7.7861309174199689e-01 -4.2308297041504300e-01 -1.2818180804095045e+00 1.1624715558534011e+00 -2.5717421163395215e+00 1.6915196593666785e-03 -1.1715312435108009e-01 
        </Neuron>
        <Neuron NSynapses="34">
          -1.0487241749312896e-02 -1.1106415234922018e+00 -2.1137744512311447e-02 2.2117162464320203e-01 -2.3533525799093003e-02 -1.5910352136644290e-01 -5.7453186990667504e-01 -7.3799344002277734e-01 1.4410930735501977e+00 8.1052327355984599e-01 9.6958173656106028e-01 -3.9640059762677388e-01 -4.8131828506144714e-01 -4.4599134232818714e-02 -8.6032830474625443e-04 -7.5721946700372089e-01 -8.6415772228538412e-01 4.5903132731515188e-02 -1.7206593547594344e+00 -2.8836255898892635e+00 -1.9625327899395912e+00 4.1916647952855469e-02 9.5392342383194967e-03 -1.7040072762054777e+00 -1.5790104243209906e+00 2.3313260752465915e-02 1.8197409696934042e+00 2.4849595365464219e+00 1.5654740251298640e+00 -6.3548496624281148e-01 -3.7512753516496868e+00 -2.8626055019127311e-01 -3.8122756099238661e-03 -2.3399124330671612e+00 
        </Neuron>
        <Neuron NSynapses="34">
          -3.4859808597060882e-01 -3.6584891081719301e-01 -8.3597991906223679e-01 7.7892756577803077e-02 1.5940868742269441e+00 1.1271666153186666e-01 -7.0225210775296809e-01 -8.2068087599926043e-01 2.0050644826370285e+00 -8.5364906914755134e-01 -4.3121451443965347e-01 1.5575002786500025e+00 1.0140265477700448e+00 1.1533857030138139e-01 -7.2633792518886617e-02 -2.4968749684067251e+00 2.1458969014278320e+00 7.0768947634912904e-01 -5.7721944225977184e-01 2.5646738566663535e-01 1.9809579523270975e+00 -6.4642233989582132e-02 5.5159514975001023e-01 1.3205729968895599e+00 -1.1697127393573503e+00 -3.0626796977621756e-01 -6.2829533744975422e-02 2.6177472280376635e+00 1.1816711041627959e+00 -1.0129973537308741e+00 -1.2872902314947370e+00 2.2624521305745335e+00 1.4286306140302157e-01 -1.0562804314871306e+00 
        </Neuron>
        <Neuron NSynapses="34">
          -6.7194460584432469e-01 -2.2585193120976417e+00 3.6605540896888350e-01 3.9531496460542992e+00 -1.7529299858161866e+00 -1.2842657352926008e+00 2.8261352383968092e+00 4.5961420989675306e-01 -1.4989078203662626e-01 2.7470591437722858e-01 -2.1243461969792374e+00 -1.3517459692107949e+00 5.3084419781618009e-01 -1.0429519641205651e+00 -1.1865270793877884e-01 -2.0223918657342779e+00 -2.6451722445741317e+00 -2.1305946032320975e+00 -2.3263779536252199e-01 -2.2820028754276929e+00 5.1369097501553929e-01 -6.7123949233372227e-01 7.9330655923630200e-01 7.4764129393103107e-01 -2.2007334749792307e+00 1.3405579688996883e+00 1.7021885725148451e+00 -1.5800876398903979e-01 -1.1050027396980591e+00 -7.7935034971918915e-01 1.3537030190380384e+00 -3.4556435270214375e-01 -7.7118604280308800e-01 -4.1850243506792975e+00 
        </Neuron>
      </Layer>
      <Layer Index="1" NNeurons="35">
        <Neuron NSynapses="1">
          6.2897721493359660e+00 
        </Neuron>
        <Neuron NSynapses="1">
          -2.7476746599751035e-03 
        </Neuron>
        <Neuron NSynapses="1">
          -3.4933819764974700e-01 
        </Neuron>
        <Neuron NSynapses="1">
          -8.7748830487086212e-03 
        </Neuron>
        <Neuron NSynapses="1">
          8.2875681583990356e-03 
        </Neuron>
        <Neuron NSynapses="1">
          1.2748882548052489e+00 
        </Neuron>
        <Neuron NSynapses="1">
          6.3443440489492501e-03 
        </Neuron>
        <Neuron NSynapses="1">
          -1.4201740933475779e-03 
        </Neuron>
        <Neuron NSynapses="1">
          -1.5909317018682552e-03 
        </Neuron>
        <Neuron NSynapses="1">
          -9.1106660960795839e-04 
        </Neuron>
        <Neuron NSynapses="1">
          1.7662649099660904e-01 
        </Neuron>
        <Neuron NSynapses="1">
          -2.1194971718453874e-03 
        </Neuron>
        <Neuron NSynapses="1">
          -9.3645171710851831e-06 
        </Neuron>
        <Neuron NSynapses="1">
          -4.9528601584462910e+00 
        </Neuron>
        <Neuron NSynapses="1">
          1.5118966390577560e-01 
        </Neuron>
        <Neuron NSynapses="1">
          3.7271276125493786e-03 
        </Neuron>
        <Neuron NSynapses="1">
          -2.6700585205907041e-03 
        </Neuron>
        <Neuron NSynapses="1">
          3.5792811922686252e-01 
        </Neuron>
        <Neuron NSynapses="1">
          1.4878050092426258e-03 
        </Neuron>
        <Neuron NSynapses="1">
          9.4207164414667807e-03 
        </Neuron>
        <Neuron NSynapses="1">
          1.6932756782847138e-02 
        </Neuron>
        <Neuron NSynapses="1">
          -5.6850687588173099e-03 
        </Neuron>
        <Neuron NSynapses="1">
          3.7024287756447012e+00 
        </Neuron>
        <Neuron NSynapses="1">
          -4.0145947295134729e-03 
        </Neuron>
        <Neuron NSynapses="1">
          -1.8745247576702295e-03 
        </Neuron>
        <Neuron NSynapses="1">
          -2.2866814077298665e+00 
        </Neuron>
        <Neuron NSynapses="1">
          -1.6506422255210809e-03 
        </Neuron>
        <Neuron NSynapses="1">
          7.1324361142518127e-03 
        </Neuron>
        <Neuron NSynapses="1">
          2.0784245516329578e-03 
        </Neuron>
        <Neuron NSynapses="1">
          -7.4927229820601496e-03 
        </Neuron>
        <Neuron NSynapses="1">
          -4.8229842967539953e-03 
        </Neuron>
        <Neuron NSynapses="1">
          1.9797129106156005e-03 
        </Neuron>
        <Neuron NSynapses="1">
          4.5458638842744881e+00 
        </Neuron>
        <Neuron NSynapses="1">
          5.1661730725147348e-02 
        </Neuron>
        <Neuron NSynapses="1">
          3.9831241600335590e+00 
        </Neuron>
      </Layer>
      <Layer Index="2" NNeurons="1">
        <Neuron NSynapses="0"/>
      </Layer>
    </Layout>
  </Weights>
</MethodSetup>
